{"_layerInput": [{"py/object": "numpy.ndarray", "dtype": "float64", "values": [[-5.5459567442758875, -2.972276673878743, 4.673465299096801, 1.3682571459315513], [-2.1040142064775287, 5.099598139002691, 2.5943589974624253, -4.828214456447794]]}, {"py/object": "numpy.ndarray", "dtype": "float64", "values": [[3.2439447016606278, -3.574151306854586, -12.432364145764941, -3.8736739286039814], [-4.10396988829322, 3.4972164595482536, -3.6537572574834734, -10.548464404928815], [-3.385429279897937, -11.922600117363457, -4.333161237959752, 3.4792638411313463], [-8.730463356235509, -3.541721790984341, 3.236269426856083, -3.282808608984223]]}], "_layerOutput": [{"py/object": "numpy.ndarray", "dtype": "float64", "values": [[0.003888031255021606, 0.04869415213662806, 0.9907465775419623, 0.7970984233274439], [0.1087072733703447, 0.9939377775868516, 0.9304976507667462, 0.007937289664468212]]}, {"py/object": "numpy.ndarray", "dtype": "float64", "values": [[0.962454913397517, 0.027274458045069908, 3.987412103183687e-06, 0.020358784098866857], [0.01623895745138409, 0.9706084652545208, 0.025240098207612947, 2.6233046155718585e-05], [0.03275395204141725, 6.6386179513069925e-06, 0.01295592811427713, 0.9700919690108937], [0.000161561459946953, 0.02814814866225468, 0.9621765772861046, 0.03616568699947563]]}], "layerCount": 2, "py/object": "__main__.BackPropagationNetwork", "shape": {"py/tuple": [4, 2, 4]}, "previousWeightDelta": {"py/object": "numpy.ndarray", "dtype": "object", "values": [{"py/object": "numpy.ndarray", "dtype": "float64", "values": [[7.460092213794784e-05, 0.00020980228306697246, -0.00014311980285306686, -0.00012402716294878554, 1.7256239403067898e-05], [0.00016420831750819768, -5.114886372353286e-05, 9.98080326130353e-05, -0.00023600043559266463, -2.3132949194964498e-05]]}, {"py/object": "numpy.ndarray", "dtype": "float64", "values": [[0.0003536157666879208, 0.0005749588158116191, -0.00022706022015463027], [0.0005754173181297062, -0.0002273648094623209, 4.193311401982461e-05], [-0.0005234897250951198, 0.00026008226286911213, 0.0003356257471358718], [-0.0003214028494305972, -0.000505473674491818, 0.0006541951445315312]]}]}, "weights": [{"py/object": "numpy.ndarray", "dtype": "float64", "values": [[-4.8489909163838165, -2.2754055031341998, 2.065375413224175, 5.370570203002389, -0.6970301435119638], [-2.4017206221882406, 4.802042504772187, -5.125875786755798, 2.2969327836720996, 0.29760764706455556]]}, {"py/object": "numpy.ndarray", "dtype": "float64", "values": [[-9.888318717030414, -7.201973080705187, 4.065411908401432], [-6.9891782570745145, 8.940572132913422, -5.048714580099115], [7.382035258089148, -10.01781562887883, -2.3253747955288455], [7.564087560076123, 5.478965642682744, -9.355894870814826]]}], "bias": true}